,0,1,2,3,4,5,6,7,8,9,10,11,12,13,14,15
Accumulation,-0.9546798,-0.29252413,2.1607804,-0.72828627,-2.1137917,-0.1721138,-0.72728074,-0.3742522,-1.2213658,-0.81001735,1.4136935,0.6490545,0.762728,-2.1848707,1.8187323,-1.9886944
Income,-2.0238886,1.5364199,1.7303871,-1.0568377,1.1725522,0.3828369,2.0521238,-1.126705,0.31113002,0.69866765,-0.2630109,0.5033395,-1.183187,0.7567042,1.1893401,0.55703574
